<?xml version="1.0"?>
<opencv_storage>
<cascade>
  <stageType>BOOST</stageType>
  <featureType>HAAR</featureType>
  <height>24</height>
  <width>36</width>
  <stageParams>
    <boostType>GAB</boostType>
    <minHitRate>9.9500000476837158e-01</minHitRate>
    <maxFalseAlarm>5.0000000000000000e-01</maxFalseAlarm>
    <weightTrimRate>9.4999998807907104e-01</weightTrimRate>
    <maxDepth>1</maxDepth>
    <maxWeakCount>100</maxWeakCount></stageParams>
  <featureParams>
    <maxCatCount>0</maxCatCount>
    <featSize>1</featSize>
    <mode>BASIC</mode></featureParams>
  <stageNum>15</stageNum>
  <stages>
    <!-- stage 0 -->
    <_>
      <maxWeakCount>4</maxWeakCount>
      <stageThreshold>-9.7159886360168457e-01</stageThreshold>
      <weakClassifiers>
        <_>
          <internalNodes>
            0 -1 31 1.3235425576567650e-03</internalNodes>
          <leafValues>
            -7.5155282020568848e-01 8.3505153656005859e-01</leafValues></_>
        <_>
          <internalNodes>
            0 -1 71 -2.3230046033859253e-02</internalNodes>
          <leafValues>
            8.4059834480285645e-01 -5.9719151258468628e-01</leafValues></_>
        <_>
          <internalNodes>
            0 -1 60 8.3007989451289177e-04</internalNodes>
          <leafValues>
            -4.8242554068565369e-01 8.7726825475692749e-01</leafValues></_>
        <_>
          <internalNodes>
            0 -1 85 3.8634458906017244e-04</internalNodes>
          <leafValues>
            -4.0330412983894348e-01 8.5957098007202148e-01</leafValues></_></weakClassifiers></_>
    <!-- stage 1 -->
    <_>
      <maxWeakCount>7</maxWeakCount>
      <stageThreshold>-1.5365455150604248e+00</stageThreshold>
      <weakClassifiers>
        <_>
          <internalNodes>
            0 -1 13 -2.4207998067140579e-03</internalNodes>
          <leafValues>
            4.4144144654273987e-01 -6.8181818723678589e-01</leafValues></_>
        <_>
          <internalNodes>
            0 -1 36 -1.0311953723430634e-01</internalNodes>
          <leafValues>
            7.7773046493530273e-01 -3.0467367172241211e-01</leafValues></_>
        <_>
          <internalNodes>
            0 -1 53 -1.5298932790756226e-02</internalNodes>
          <leafValues>
            6.3793772459030151e-01 -4.8652482032775879e-01</leafValues></_>
        <_>
          <internalNodes>
            0 -1 105 -4.9642464146018028e-03</internalNodes>
          <leafValues>
            7.2202599048614502e-01 -1.8019367754459381e-01</leafValues></_>
        <_>
          <internalNodes>
            0 -1 88 -2.4604713544249535e-03</internalNodes>
          <leafValues>
            7.2985440492630005e-01 -2.0563688874244690e-01</leafValues></_>
        <_>
          <internalNodes>
            0 -1 75 8.4572110790759325e-04</internalNodes>
          <leafValues>
            -3.3940503001213074e-01 6.3058096170425415e-01</leafValues></_>
        <_>
          <internalNodes>
            0 -1 51 -8.4501551464200020e-04</internalNodes>
          <leafValues>
            5.4347687959671021e-01 -3.0827918648719788e-01</leafValues></_></weakClassifiers></_>
    <!-- stage 2 -->
    <_>
      <maxWeakCount>4</maxWeakCount>
      <stageThreshold>-9.9481219053268433e-01</stageThreshold>
      <weakClassifiers>
        <_>
          <internalNodes>
            0 -1 52 3.1144038075581193e-04</internalNodes>
          <leafValues>
            -7.0764118432998657e-01 4.4067797064781189e-01</leafValues></_>
        <_>
          <internalNodes>
            0 -1 93 -4.4971980154514313e-02</internalNodes>
          <leafValues>
            6.0150349140167236e-01 -4.7407534718513489e-01</leafValues></_>
        <_>
          <internalNodes>
            0 -1 58 4.0591883589513600e-04</internalNodes>
          <leafValues>
            -3.8000038266181946e-01 6.0621845722198486e-01</leafValues></_>
        <_>
          <internalNodes>
            0 -1 82 -4.8289477126672864e-04</internalNodes>
          <leafValues>
            6.5858668088912964e-01 -4.1931414604187012e-01</leafValues></_></weakClassifiers></_>
    <!-- stage 3 -->
    <_>
      <maxWeakCount>6</maxWeakCount>
      <stageThreshold>-1.1343963146209717e+00</stageThreshold>
      <weakClassifiers>
        <_>
          <internalNodes>
            0 -1 18 -4.1047447919845581e-01</internalNodes>
          <leafValues>
            7.2222220897674561e-01 -6.1383283138275146e-01</leafValues></_>
        <_>
          <internalNodes>
            0 -1 84 2.4275230243802071e-03</internalNodes>
          <leafValues>
            -5.1659196615219116e-01 4.8274779319763184e-01</leafValues></_>
        <_>
          <internalNodes>
            0 -1 63 3.0262168729677796e-04</internalNodes>
          <leafValues>
            -3.6915686726570129e-01 4.9256467819213867e-01</leafValues></_>
        <_>
          <internalNodes>
            0 -1 0 -2.9117912054061890e-03</internalNodes>
          <leafValues>
            -6.0595470666885376e-01 3.2094481587409973e-01</leafValues></_>
        <_>
          <internalNodes>
            0 -1 106 -7.1966409450396895e-04</internalNodes>
          <leafValues>
            6.1254125833511353e-01 -3.2215568423271179e-01</leafValues></_>
        <_>
          <internalNodes>
            0 -1 33 -1.6296538524329662e-04</internalNodes>
          <leafValues>
            4.3157413601875305e-01 -3.5214534401893616e-01</leafValues></_></weakClassifiers></_>
    <!-- stage 4 -->
    <_>
      <maxWeakCount>7</maxWeakCount>
      <stageThreshold>-9.4215005636215210e-01</stageThreshold>
      <weakClassifiers>
        <_>
          <internalNodes>
            0 -1 64 -4.9663744866847992e-02</internalNodes>
          <leafValues>
            5.6164383888244629e-01 -5.8381503820419312e-01</leafValues></_>
        <_>
          <internalNodes>
            0 -1 4 -7.9436246305704117e-03</internalNodes>
          <leafValues>
            5.5856144428253174e-01 -3.0606606602668762e-01</leafValues></_>
        <_>
          <internalNodes>
            0 -1 40 -6.3202314078807831e-02</internalNodes>
          <leafValues>
            6.5323901176452637e-01 -2.9827725887298584e-01</leafValues></_>
        <_>
          <internalNodes>
            0 -1 114 -8.5905106971040368e-04</internalNodes>
          <leafValues>
            -6.9753175973892212e-01 2.7268531918525696e-01</leafValues></_>
        <_>
          <internalNodes>
            0 -1 79 -2.4398560635745525e-03</internalNodes>
          <leafValues>
            5.0517445802688599e-01 -3.0639129877090454e-01</leafValues></_>
        <_>
          <internalNodes>
            0 -1 57 2.1525677293539047e-02</internalNodes>
          <leafValues>
            -2.3982761800289154e-01 6.8680632114410400e-01</leafValues></_>
        <_>
          <internalNodes>
            0 -1 38 -3.8086630403995514e-02</internalNodes>
          <leafValues>
            6.5965503454208374e-01 -1.8643425405025482e-01</leafValues></_></weakClassifiers></_>
    <!-- stage 5 -->
    <_>
      <maxWeakCount>8</maxWeakCount>
      <stageThreshold>-9.9703854322433472e-01</stageThreshold>
      <weakClassifiers>
        <_>
          <internalNodes>
            0 -1 10 3.3304518461227417e-01</internalNodes>
          <leafValues>
            -5.6353592872619629e-01 7.5438594818115234e-01</leafValues></_>
        <_>
          <internalNodes>
            0 -1 54 1.2235905742272735e-03</internalNodes>
          <leafValues>
            -2.7462300658226013e-01 5.2752190828323364e-01</leafValues></_>
        <_>
          <internalNodes>
            0 -1 74 -2.3113062605261803e-02</internalNodes>
          <leafValues>
            5.7767409086227417e-01 -3.0053153634071350e-01</leafValues></_>
        <_>
          <internalNodes>
            0 -1 70 3.3542042365297675e-04</internalNodes>
          <leafValues>
            -3.0326762795448303e-01 4.6417111158370972e-01</leafValues></_>
        <_>
          <internalNodes>
            0 -1 69 1.5495900064706802e-02</internalNodes>
          <leafValues>
            -2.5000748038291931e-01 5.1223570108413696e-01</leafValues></_>
        <_>
          <internalNodes>
            0 -1 46 1.0267709876643494e-04</internalNodes>
          <leafValues>
            2.3786331713199615e-01 -6.5860050916671753e-01</leafValues></_>
        <_>
          <internalNodes>
            0 -1 56 1.8613860011100769e-03</internalNodes>
          <leafValues>
            -3.2818484306335449e-01 4.0239527821540833e-01</leafValues></_>
        <_>
          <internalNodes>
            0 -1 96 2.4776649661362171e-04</internalNodes>
          <leafValues>
            1.8369351327419281e-01 -6.7669451236724854e-01</leafValues></_></weakClassifiers></_>
    <!-- stage 6 -->
    <_>
      <maxWeakCount>7</maxWeakCount>
      <stageThreshold>-9.7129696607589722e-01</stageThreshold>
      <weakClassifiers>
        <_>
          <internalNodes>
            0 -1 2 -1.0208041965961456e-01</internalNodes>
          <leafValues>
            5.1898735761642456e-01 -5.9411764144897461e-01</leafValues></_>
        <_>
          <internalNodes>
            0 -1 100 -5.4983911104500294e-03</internalNodes>
          <leafValues>
            5.9834468364715576e-01 -2.7137455344200134e-01</leafValues></_>
        <_>
          <internalNodes>
            0 -1 62 -6.6032582253683358e-05</internalNodes>
          <leafValues>
            3.9535361528396606e-01 -3.5239756107330322e-01</leafValues></_>
        <_>
          <internalNodes>
            0 -1 98 -3.9036199450492859e-04</internalNodes>
          <leafValues>
            -7.3787516355514526e-01 2.2756807506084442e-01</leafValues></_>
        <_>
          <internalNodes>
            0 -1 42 -1.6472419956699014e-03</internalNodes>
          <leafValues>
            5.1205855607986450e-01 -2.4737811088562012e-01</leafValues></_>
        <_>
          <internalNodes>
            0 -1 12 2.9555672779679298e-02</internalNodes>
          <leafValues>
            -1.9388216733932495e-01 6.8789333105087280e-01</leafValues></_>
        <_>
          <internalNodes>
            0 -1 65 9.7587268101051450e-04</internalNodes>
          <leafValues>
            -2.8746622800827026e-01 4.7261497378349304e-01</leafValues></_></weakClassifiers></_>
    <!-- stage 7 -->
    <_>
      <maxWeakCount>9</maxWeakCount>
      <stageThreshold>-1.1262375116348267e+00</stageThreshold>
      <weakClassifiers>
        <_>
          <internalNodes>
            0 -1 99 -8.4375090897083282e-02</internalNodes>
          <leafValues>
            7.2549021244049072e-01 -5.3804349899291992e-01</leafValues></_>
        <_>
          <internalNodes>
            0 -1 78 -2.8719920665025711e-03</internalNodes>
          <leafValues>
            4.3128710985183716e-01 -3.0890333652496338e-01</leafValues></_>
        <_>
          <internalNodes>
            0 -1 35 1.4862996758893132e-03</internalNodes>
          <leafValues>
            -3.1803929805755615e-01 4.1453588008880615e-01</leafValues></_>
        <_>
          <internalNodes>
            0 -1 17 -1.5721458476036787e-04</internalNodes>
          <leafValues>
            -7.8648924827575684e-01 1.7464770376682281e-01</leafValues></_>
        <_>
          <internalNodes>
            0 -1 86 -3.5942101385444403e-04</internalNodes>
          <leafValues>
            4.8428112268447876e-01 -2.7397373318672180e-01</leafValues></_>
        <_>
          <internalNodes>
            0 -1 61 4.5892799971625209e-04</internalNodes>
          <leafValues>
            -2.4355018138885498e-01 5.9215587377548218e-01</leafValues></_>
        <_>
          <internalNodes>
            0 -1 20 -1.7358153127133846e-04</internalNodes>
          <leafValues>
            -6.4930480718612671e-01 2.2254706919193268e-01</leafValues></_>
        <_>
          <internalNodes>
            0 -1 102 -7.5248684734106064e-03</internalNodes>
          <leafValues>
            5.9781706333160400e-01 -2.2576035559177399e-01</leafValues></_>
        <_>
          <internalNodes>
            0 -1 101 -5.6680606212466955e-04</internalNodes>
          <leafValues>
            3.8483807444572449e-01 -3.7215727567672729e-01</leafValues></_></weakClassifiers></_>
    <!-- stage 8 -->
    <_>
      <maxWeakCount>8</maxWeakCount>
      <stageThreshold>-9.4643151760101318e-01</stageThreshold>
      <weakClassifiers>
        <_>
          <internalNodes>
            0 -1 111 1.2828150764107704e-02</internalNodes>
          <leafValues>
            -5.6125354766845703e-01 5.2941179275512695e-01</leafValues></_>
        <_>
          <internalNodes>
            0 -1 92 2.6900391094386578e-03</internalNodes>
          <leafValues>
            -2.9178416728973389e-01 4.4193017482757568e-01</leafValues></_>
        <_>
          <internalNodes>
            0 -1 9 -1.0420008038636297e-04</internalNodes>
          <leafValues>
            -4.9742141366004944e-01 2.5203132629394531e-01</leafValues></_>
        <_>
          <internalNodes>
            0 -1 73 5.1569184288382530e-03</internalNodes>
          <leafValues>
            -2.3382453620433807e-01 4.7356998920440674e-01</leafValues></_>
        <_>
          <internalNodes>
            0 -1 89 4.1305668652057648e-02</internalNodes>
          <leafValues>
            -2.8094646334648132e-01 4.9978795647621155e-01</leafValues></_>
        <_>
          <internalNodes>
            0 -1 11 -2.4825860746204853e-03</internalNodes>
          <leafValues>
            5.9280461072921753e-01 -2.0643346011638641e-01</leafValues></_>
        <_>
          <internalNodes>
            0 -1 24 -1.8470328068360686e-03</internalNodes>
          <leafValues>
            6.4878207445144653e-01 -1.7160981893539429e-01</leafValues></_>
        <_>
          <internalNodes>
            0 -1 80 -5.7147398591041565e-02</internalNodes>
          <leafValues>
            8.6907696723937988e-01 -1.4426696300506592e-01</leafValues></_></weakClassifiers></_>
    <!-- stage 9 -->
    <_>
      <maxWeakCount>10</maxWeakCount>
      <stageThreshold>-1.0469957590103149e+00</stageThreshold>
      <weakClassifiers>
        <_>
          <internalNodes>
            0 -1 23 2.4817174673080444e-01</internalNodes>
          <leafValues>
            -5.6521737575531006e-01 4.5945945382118225e-01</leafValues></_>
        <_>
          <internalNodes>
            0 -1 116 1.6737235710024834e-03</internalNodes>
          <leafValues>
            1.7526881396770477e-01 -6.0490238666534424e-01</leafValues></_>
        <_>
          <internalNodes>
            0 -1 83 -6.2774075195193291e-03</internalNodes>
          <leafValues>
            5.5705463886260986e-01 -2.0494608581066132e-01</leafValues></_>
        <_>
          <internalNodes>
            0 -1 8 -8.2073267549276352e-04</internalNodes>
          <leafValues>
            -6.6401875019073486e-01 1.8758317828178406e-01</leafValues></_>
        <_>
          <internalNodes>
            0 -1 87 -3.1984732486307621e-03</internalNodes>
          <leafValues>
            5.2958387136459351e-01 -2.3342363536357880e-01</leafValues></_>
        <_>
          <internalNodes>
            0 -1 44 2.4180236505344510e-04</internalNodes>
          <leafValues>
            -3.0456978082656860e-01 3.7303140759468079e-01</leafValues></_>
        <_>
          <internalNodes>
            0 -1 108 -5.2703911205753684e-04</internalNodes>
          <leafValues>
            -8.2134908437728882e-01 1.5833938121795654e-01</leafValues></_>
        <_>
          <internalNodes>
            0 -1 29 1.2846491299569607e-03</internalNodes>
          <leafValues>
            -2.5505346059799194e-01 5.2958250045776367e-01</leafValues></_>
        <_>
          <internalNodes>
            0 -1 97 -2.4876525276340544e-04</internalNodes>
          <leafValues>
            -6.4603084325790405e-01 1.9106051325798035e-01</leafValues></_>
        <_>
          <internalNodes>
            0 -1 41 -5.9748262166976929e-02</internalNodes>
          <leafValues>
            -8.6730802059173584e-01 1.2422046810388565e-01</leafValues></_></weakClassifiers></_>
    <!-- stage 10 -->
    <_>
      <maxWeakCount>9</maxWeakCount>
      <stageThreshold>-9.7920453548431396e-01</stageThreshold>
      <weakClassifiers>
        <_>
          <internalNodes>
            0 -1 5 -1.5080741606652737e-02</internalNodes>
          <leafValues>
            3.4782609343528748e-01 -5.9021407365798950e-01</leafValues></_>
        <_>
          <internalNodes>
            0 -1 26 7.5050967279821634e-04</internalNodes>
          <leafValues>
            -3.8835614919662476e-01 2.9294678568840027e-01</leafValues></_>
        <_>
          <internalNodes>
            0 -1 7 -2.4642483331263065e-03</internalNodes>
          <leafValues>
            -5.9580868482589722e-01 1.5145778656005859e-01</leafValues></_>
        <_>
          <internalNodes>
            0 -1 34 -9.3559134984388947e-04</internalNodes>
          <leafValues>
            4.1757109761238098e-01 -2.5076171755790710e-01</leafValues></_>
        <_>
          <internalNodes>
            0 -1 112 -1.1178788263350725e-03</internalNodes>
          <leafValues>
            5.5845791101455688e-01 -2.1831840276718140e-01</leafValues></_>
        <_>
          <internalNodes>
            0 -1 48 8.0895981227513403e-05</internalNodes>
          <leafValues>
            3.2512366771697998e-01 -3.8023436069488525e-01</leafValues></_>
        <_>
          <internalNodes>
            0 -1 81 -8.8883185526356101e-05</internalNodes>
          <leafValues>
            2.8320068120956421e-01 -4.1279637813568115e-01</leafValues></_>
        <_>
          <internalNodes>
            0 -1 25 -1.3792681274935603e-03</internalNodes>
          <leafValues>
            -6.1854028701782227e-01 1.7840974032878876e-01</leafValues></_>
        <_>
          <internalNodes>
            0 -1 107 -5.6611507898196578e-04</internalNodes>
          <leafValues>
            3.5125902295112610e-01 -3.6328747868537903e-01</leafValues></_></weakClassifiers></_>
    <!-- stage 11 -->
    <_>
      <maxWeakCount>9</maxWeakCount>
      <stageThreshold>-1.0989534854888916e+00</stageThreshold>
      <weakClassifiers>
        <_>
          <internalNodes>
            0 -1 39 2.5803440809249878e-01</internalNodes>
          <leafValues>
            -5.6521737575531006e-01 4.5945945382118225e-01</leafValues></_>
        <_>
          <internalNodes>
            0 -1 43 5.4375967010855675e-03</internalNodes>
          <leafValues>
            -2.4307160079479218e-01 4.6734833717346191e-01</leafValues></_>
        <_>
          <internalNodes>
            0 -1 28 1.8684690818190575e-02</internalNodes>
          <leafValues>
            -2.5759899616241455e-01 4.2821770906448364e-01</leafValues></_>
        <_>
          <internalNodes>
            0 -1 104 1.7615319229662418e-03</internalNodes>
          <leafValues>
            1.4884805679321289e-01 -8.3315753936767578e-01</leafValues></_>
        <_>
          <internalNodes>
            0 -1 16 2.6486326009035110e-02</internalNodes>
          <leafValues>
            1.9548317790031433e-01 -6.5883755683898926e-01</leafValues></_>
        <_>
          <internalNodes>
            0 -1 1 7.8318035230040550e-03</internalNodes>
          <leafValues>
            1.2027171999216080e-01 -8.2803452014923096e-01</leafValues></_>
        <_>
          <internalNodes>
            0 -1 14 -5.4979859851300716e-04</internalNodes>
          <leafValues>
            5.2646285295486450e-01 -2.2032649815082550e-01</leafValues></_>
        <_>
          <internalNodes>
            0 -1 103 -1.8186410889029503e-03</internalNodes>
          <leafValues>
            4.6143701672554016e-01 -2.4169294536113739e-01</leafValues></_>
        <_>
          <internalNodes>
            0 -1 115 -9.5303963462356478e-05</internalNodes>
          <leafValues>
            -5.4061102867126465e-01 2.3593656718730927e-01</leafValues></_></weakClassifiers></_>
    <!-- stage 12 -->
    <_>
      <maxWeakCount>10</maxWeakCount>
      <stageThreshold>-1.0241358280181885e+00</stageThreshold>
      <weakClassifiers>
        <_>
          <internalNodes>
            0 -1 21 -4.5463994145393372e-01</internalNodes>
          <leafValues>
            4.2465752363204956e-01 -5.5491328239440918e-01</leafValues></_>
        <_>
          <internalNodes>
            0 -1 59 8.6689041927456856e-04</internalNodes>
          <leafValues>
            -3.3208689093589783e-01 3.1116479635238647e-01</leafValues></_>
        <_>
          <internalNodes>
            0 -1 90 7.4105886742472649e-03</internalNodes>
          <leafValues>
            -2.4779731035232544e-01 3.9374318718910217e-01</leafValues></_>
        <_>
          <internalNodes>
            0 -1 95 -6.1593198915943503e-04</internalNodes>
          <leafValues>
            -5.4361152648925781e-01 2.0220486819744110e-01</leafValues></_>
        <_>
          <internalNodes>
            0 -1 19 5.2443402819335461e-04</internalNodes>
          <leafValues>
            -2.6300922036170959e-01 4.2504855990409851e-01</leafValues></_>
        <_>
          <internalNodes>
            0 -1 45 -4.8290964215993881e-02</internalNodes>
          <leafValues>
            6.0886377096176147e-01 -1.8254987895488739e-01</leafValues></_>
        <_>
          <internalNodes>
            0 -1 15 -1.5871148556470871e-02</internalNodes>
          <leafValues>
            6.1724883317947388e-01 -1.9285789132118225e-01</leafValues></_>
        <_>
          <internalNodes>
            0 -1 27 -5.5877560953376815e-05</internalNodes>
          <leafValues>
            -5.2305203676223755e-01 2.3209954798221588e-01</leafValues></_>
        <_>
          <internalNodes>
            0 -1 76 -1.1530638585099950e-04</internalNodes>
          <leafValues>
            3.8902568817138672e-01 -3.1327927112579346e-01</leafValues></_>
        <_>
          <internalNodes>
            0 -1 110 -1.4820805517956614e-04</internalNodes>
          <leafValues>
            -8.1726431846618652e-01 1.5915082395076752e-01</leafValues></_></weakClassifiers></_>
    <!-- stage 13 -->
    <_>
      <maxWeakCount>11</maxWeakCount>
      <stageThreshold>-1.1091159582138062e+00</stageThreshold>
      <weakClassifiers>
        <_>
          <internalNodes>
            0 -1 109 9.2017492279410362e-03</internalNodes>
          <leafValues>
            -5.3972601890563965e-01 6.6666668653488159e-01</leafValues></_>
        <_>
          <internalNodes>
            0 -1 50 1.1266330257058144e-02</internalNodes>
          <leafValues>
            -3.1403368711471558e-01 3.8165667653083801e-01</leafValues></_>
        <_>
          <internalNodes>
            0 -1 77 3.6498889676295221e-04</internalNodes>
          <leafValues>
            -2.7158609032630920e-01 3.9764335751533508e-01</leafValues></_>
        <_>
          <internalNodes>
            0 -1 32 9.9889097327832133e-05</internalNodes>
          <leafValues>
            -2.8173586726188660e-01 4.3283611536026001e-01</leafValues></_>
        <_>
          <internalNodes>
            0 -1 68 -3.1485324725508690e-03</internalNodes>
          <leafValues>
            -9.3511295318603516e-01 1.3395865261554718e-01</leafValues></_>
        <_>
          <internalNodes>
            0 -1 47 -4.0144743979908526e-04</internalNodes>
          <leafValues>
            3.3951324224472046e-01 -3.2978850603103638e-01</leafValues></_>
        <_>
          <internalNodes>
            0 -1 55 -9.3569774180650711e-03</internalNodes>
          <leafValues>
            5.2610260248184204e-01 -2.3067583143711090e-01</leafValues></_>
        <_>
          <internalNodes>
            0 -1 37 1.1183873284608126e-03</internalNodes>
          <leafValues>
            1.4977851510047913e-01 -9.0035426616668701e-01</leafValues></_>
        <_>
          <internalNodes>
            0 -1 6 -2.9947948642075062e-03</internalNodes>
          <leafValues>
            4.3603956699371338e-01 -2.9212585091590881e-01</leafValues></_>
        <_>
          <internalNodes>
            0 -1 67 -1.4031824469566345e-01</internalNodes>
          <leafValues>
            7.4902820587158203e-01 -1.7222468554973602e-01</leafValues></_>
        <_>
          <internalNodes>
            0 -1 22 -4.6682823449373245e-03</internalNodes>
          <leafValues>
            6.3270872831344604e-01 -1.6734927892684937e-01</leafValues></_></weakClassifiers></_>
    <!-- stage 14 -->
    <_>
      <maxWeakCount>8</maxWeakCount>
      <stageThreshold>-7.5476461648941040e-01</stageThreshold>
      <weakClassifiers>
        <_>
          <internalNodes>
            0 -1 3 -4.6297244727611542e-02</internalNodes>
          <leafValues>
            7.5000000000000000e-01 -5.0395780801773071e-01</leafValues></_>
        <_>
          <internalNodes>
            0 -1 72 -2.9584582895040512e-02</internalNodes>
          <leafValues>
            6.4893460273742676e-01 -2.7837905287742615e-01</leafValues></_>
        <_>
          <internalNodes>
            0 -1 66 -1.5153859276324511e-03</internalNodes>
          <leafValues>
            -8.5238176584243774e-01 1.7931678891181946e-01</leafValues></_>
        <_>
          <internalNodes>
            0 -1 49 4.4909510761499405e-03</internalNodes>
          <leafValues>
            -1.5981614589691162e-01 6.0042232275009155e-01</leafValues></_>
        <_>
          <internalNodes>
            0 -1 30 -2.1483705495484173e-05</internalNodes>
          <leafValues>
            -5.2541035413742065e-01 2.1039389073848724e-01</leafValues></_>
        <_>
          <internalNodes>
            0 -1 91 4.9517740262672305e-04</internalNodes>
          <leafValues>
            -1.9303371012210846e-01 6.4123874902725220e-01</leafValues></_>
        <_>
          <internalNodes>
            0 -1 94 1.0562869720160961e-03</internalNodes>
          <leafValues>
            -3.6913928389549255e-01 2.8212940692901611e-01</leafValues></_>
        <_>
          <internalNodes>
            0 -1 113 -3.9035727968439460e-04</internalNodes>
          <leafValues>
            4.3094125390052795e-01 -2.9141801595687866e-01</leafValues></_></weakClassifiers></_></stages>
  <features>
    <_>
      <rects>
        <_>
          0 0 33 1 -1.</_>
        <_>
          11 0 11 1 3.</_></rects>
      <tilted>0</tilted></_>
    <_>
      <rects>
        <_>
          0 2 1 20 -1.</_>
        <_>
          0 12 1 10 2.</_></rects>
      <tilted>0</tilted></_>
    <_>
      <rects>
        <_>
          0 3 33 6 -1.</_>
        <_>
          11 3 11 6 3.</_></rects>
      <tilted>0</tilted></_>
    <_>
      <rects>
        <_>
          0 5 36 1 -1.</_>
        <_>
          12 5 12 1 3.</_></rects>
      <tilted>0</tilted></_>
    <_>
      <rects>
        <_>
          0 9 6 4 -1.</_>
        <_>
          3 9 3 4 2.</_></rects>
      <tilted>0</tilted></_>
    <_>
      <rects>
        <_>
          0 9 6 8 -1.</_>
        <_>
          3 9 3 8 2.</_></rects>
      <tilted>0</tilted></_>
    <_>
      <rects>
        <_>
          0 10 6 9 -1.</_>
        <_>
          2 10 2 9 3.</_></rects>
      <tilted>0</tilted></_>
    <_>
      <rects>
        <_>
          0 17 3 4 -1.</_>
        <_>
          0 19 3 2 2.</_></rects>
      <tilted>0</tilted></_>
    <_>
      <rects>
        <_>
          0 21 6 1 -1.</_>
        <_>
          3 21 3 1 2.</_></rects>
      <tilted>0</tilted></_>
    <_>
      <rects>
        <_>
          1 4 8 2 -1.</_>
        <_>
          5 4 4 2 2.</_></rects>
      <tilted>0</tilted></_>
    <_>
      <rects>
        <_>
          1 7 33 14 -1.</_>
        <_>
          1 14 33 7 2.</_></rects>
      <tilted>0</tilted></_>
    <_>
      <rects>
        <_>
          1 8 10 2 -1.</_>
        <_>
          1 8 5 1 2.</_>
        <_>
          6 9 5 1 2.</_></rects>
      <tilted>0</tilted></_>
    <_>
      <rects>
        <_>
          1 8 16 10 -1.</_>
        <_>
          1 8 8 5 2.</_>
        <_>
          9 13 8 5 2.</_></rects>
      <tilted>0</tilted></_>
    <_>
      <rects>
        <_>
          1 10 6 4 -1.</_>
        <_>
          3 10 2 4 3.</_></rects>
      <tilted>0</tilted></_>
    <_>
      <rects>
        <_>
          1 12 4 2 -1.</_>
        <_>
          1 12 2 1 2.</_>
        <_>
          3 13 2 1 2.</_></rects>
      <tilted>0</tilted></_>
    <_>
      <rects>
        <_>
          1 16 27 3 -1.</_>
        <_>
          10 16 9 3 3.</_></rects>
      <tilted>0</tilted></_>
    <_>
      <rects>
        <_>
          1 17 28 4 -1.</_>
        <_>
          15 17 14 4 2.</_></rects>
      <tilted>0</tilted></_>
    <_>
      <rects>
        <_>
          2 1 3 1 -1.</_>
        <_>
          3 1 1 1 3.</_></rects>
      <tilted>0</tilted></_>
    <_>
      <rects>
        <_>
          2 1 31 21 -1.</_>
        <_>
          2 8 31 7 3.</_></rects>
      <tilted>0</tilted></_>
    <_>
      <rects>
        <_>
          2 11 2 8 -1.</_>
        <_>
          2 11 1 4 2.</_>
        <_>
          3 15 1 4 2.</_></rects>
      <tilted>0</tilted></_>
    <_>
      <rects>
        <_>
          3 1 6 3 -1.</_>
        <_>
          3 2 6 1 3.</_></rects>
      <tilted>0</tilted></_>
    <_>
      <rects>
        <_>
          3 1 31 18 -1.</_>
        <_>
          3 7 31 6 3.</_></rects>
      <tilted>0</tilted></_>
    <_>
      <rects>
        <_>
          3 7 4 12 -1.</_>
        <_>
          5 7 2 12 2.</_></rects>
      <tilted>0</tilted></_>
    <_>
      <rects>
        <_>
          3 9 33 12 -1.</_>
        <_>
          3 15 33 6 2.</_></rects>
      <tilted>0</tilted></_>
    <_>
      <rects>
        <_>
          3 10 6 4 -1.</_>
        <_>
          3 10 3 2 2.</_>
        <_>
          6 12 3 2 2.</_></rects>
      <tilted>0</tilted></_>
    <_>
      <rects>
        <_>
          4 0 14 1 -1.</_>
        <_>
          11 0 7 1 2.</_></rects>
      <tilted>0</tilted></_>
    <_>
      <rects>
        <_>
          4 10 14 2 -1.</_>
        <_>
          4 11 14 1 2.</_></rects>
      <tilted>0</tilted></_>
    <_>
      <rects>
        <_>
          4 18 3 1 -1.</_>
        <_>
          5 18 1 1 3.</_></rects>
      <tilted>0</tilted></_>
    <_>
      <rects>
        <_>
          5 0 12 14 -1.</_>
        <_>
          5 0 6 7 2.</_>
        <_>
          11 7 6 7 2.</_></rects>
      <tilted>0</tilted></_>
    <_>
      <rects>
        <_>
          5 4 9 1 -1.</_>
        <_>
          8 4 3 1 3.</_></rects>
      <tilted>0</tilted></_>
    <_>
      <rects>
        <_>
          5 5 2 1 -1.</_>
        <_>
          6 5 1 1 2.</_></rects>
      <tilted>0</tilted></_>
    <_>
      <rects>
        <_>
          5 10 18 2 -1.</_>
        <_>
          5 11 18 1 2.</_></rects>
      <tilted>0</tilted></_>
    <_>
      <rects>
        <_>
          5 11 2 2 -1.</_>
        <_>
          5 11 1 1 2.</_>
        <_>
          6 12 1 1 2.</_></rects>
      <tilted>0</tilted></_>
    <_>
      <rects>
        <_>
          5 12 2 4 -1.</_>
        <_>
          5 12 1 2 2.</_>
        <_>
          6 14 1 2 2.</_></rects>
      <tilted>0</tilted></_>
    <_>
      <rects>
        <_>
          5 13 12 3 -1.</_>
        <_>
          5 14 12 1 3.</_></rects>
      <tilted>0</tilted></_>
    <_>
      <rects>
        <_>
          5 14 13 3 -1.</_>
        <_>
          5 15 13 1 3.</_></rects>
      <tilted>0</tilted></_>
    <_>
      <rects>
        <_>
          6 0 5 21 -1.</_>
        <_>
          6 7 5 7 3.</_></rects>
      <tilted>0</tilted></_>
    <_>
      <rects>
        <_>
          6 1 2 3 -1.</_>
        <_>
          6 2 2 1 3.</_></rects>
      <tilted>0</tilted></_>
    <_>
      <rects>
        <_>
          6 3 6 10 -1.</_>
        <_>
          6 8 6 5 2.</_></rects>
      <tilted>0</tilted></_>
    <_>
      <rects>
        <_>
          6 8 26 14 -1.</_>
        <_>
          6 15 26 7 2.</_></rects>
      <tilted>0</tilted></_>
    <_>
      <rects>
        <_>
          6 14 12 10 -1.</_>
        <_>
          6 19 12 5 2.</_></rects>
      <tilted>0</tilted></_>
    <_>
      <rects>
        <_>
          6 17 30 5 -1.</_>
        <_>
          16 17 10 5 3.</_></rects>
      <tilted>0</tilted></_>
    <_>
      <rects>
        <_>
          7 9 4 6 -1.</_>
        <_>
          7 9 2 3 2.</_>
        <_>
          9 12 2 3 2.</_></rects>
      <tilted>0</tilted></_>
    <_>
      <rects>
        <_>
          7 14 8 6 -1.</_>
        <_>
          7 14 4 3 2.</_>
        <_>
          11 17 4 3 2.</_></rects>
      <tilted>0</tilted></_>
    <_>
      <rects>
        <_>
          8 8 3 6 -1.</_>
        <_>
          9 8 1 6 3.</_></rects>
      <tilted>0</tilted></_>
    <_>
      <rects>
        <_>
          8 14 9 10 -1.</_>
        <_>
          8 19 9 5 2.</_></rects>
      <tilted>0</tilted></_>
    <_>
      <rects>
        <_>
          9 0 3 2 -1.</_>
        <_>
          10 0 1 2 3.</_></rects>
      <tilted>0</tilted></_>
    <_>
      <rects>
        <_>
          9 14 6 2 -1.</_>
        <_>
          9 14 3 1 2.</_>
        <_>
          12 15 3 1 2.</_></rects>
      <tilted>0</tilted></_>
    <_>
      <rects>
        <_>
          10 0 24 1 -1.</_>
        <_>
          18 0 8 1 3.</_></rects>
      <tilted>0</tilted></_>
    <_>
      <rects>
        <_>
          10 8 16 2 -1.</_>
        <_>
          10 8 8 1 2.</_>
        <_>
          18 9 8 1 2.</_></rects>
      <tilted>0</tilted></_>
    <_>
      <rects>
        <_>
          10 10 12 10 -1.</_>
        <_>
          14 10 4 10 3.</_></rects>
      <tilted>0</tilted></_>
    <_>
      <rects>
        <_>
          10 13 4 4 -1.</_>
        <_>
          10 13 2 2 2.</_>
        <_>
          12 15 2 2 2.</_></rects>
      <tilted>0</tilted></_>
    <_>
      <rects>
        <_>
          10 14 2 2 -1.</_>
        <_>
          10 15 2 1 2.</_></rects>
      <tilted>0</tilted></_>
    <_>
      <rects>
        <_>
          10 14 10 10 -1.</_>
        <_>
          10 19 10 5 2.</_></rects>
      <tilted>0</tilted></_>
    <_>
      <rects>
        <_>
          10 16 10 2 -1.</_>
        <_>
          10 16 5 1 2.</_>
        <_>
          15 17 5 1 2.</_></rects>
      <tilted>0</tilted></_>
    <_>
      <rects>
        <_>
          11 1 9 8 -1.</_>
        <_>
          14 1 3 8 3.</_></rects>
      <tilted>0</tilted></_>
    <_>
      <rects>
        <_>
          11 14 15 3 -1.</_>
        <_>
          16 14 5 3 3.</_></rects>
      <tilted>0</tilted></_>
    <_>
      <rects>
        <_>
          12 2 8 8 -1.</_>
        <_>
          12 6 8 4 2.</_></rects>
      <tilted>0</tilted></_>
    <_>
      <rects>
        <_>
          12 4 2 8 -1.</_>
        <_>
          12 4 1 4 2.</_>
        <_>
          13 8 1 4 2.</_></rects>
      <tilted>0</tilted></_>
    <_>
      <rects>
        <_>
          12 7 6 2 -1.</_>
        <_>
          12 8 6 1 2.</_></rects>
      <tilted>0</tilted></_>
    <_>
      <rects>
        <_>
          12 7 7 2 -1.</_>
        <_>
          12 8 7 1 2.</_></rects>
      <tilted>0</tilted></_>
    <_>
      <rects>
        <_>
          12 8 2 2 -1.</_>
        <_>
          12 9 2 1 2.</_></rects>
      <tilted>0</tilted></_>
    <_>
      <rects>
        <_>
          12 15 2 2 -1.</_>
        <_>
          12 15 1 1 2.</_>
        <_>
          13 16 1 1 2.</_></rects>
      <tilted>0</tilted></_>
    <_>
      <rects>
        <_>
          13 7 1 3 -1.</_>
        <_>
          13 8 1 1 3.</_></rects>
      <tilted>0</tilted></_>
    <_>
      <rects>
        <_>
          15 0 9 8 -1.</_>
        <_>
          15 4 9 4 2.</_></rects>
      <tilted>0</tilted></_>
    <_>
      <rects>
        <_>
          15 1 6 7 -1.</_>
        <_>
          17 1 2 7 3.</_></rects>
      <tilted>0</tilted></_>
    <_>
      <rects>
        <_>
          15 8 2 6 -1.</_>
        <_>
          15 8 1 3 2.</_>
        <_>
          16 11 1 3 2.</_></rects>
      <tilted>0</tilted></_>
    <_>
      <rects>
        <_>
          16 12 18 12 -1.</_>
        <_>
          16 18 18 6 2.</_></rects>
      <tilted>0</tilted></_>
    <_>
      <rects>
        <_>
          16 13 3 10 -1.</_>
        <_>
          17 13 1 10 3.</_></rects>
      <tilted>0</tilted></_>
    <_>
      <rects>
        <_>
          16 15 8 9 -1.</_>
        <_>
          16 18 8 3 3.</_></rects>
      <tilted>0</tilted></_>
    <_>
      <rects>
        <_>
          17 8 3 2 -1.</_>
        <_>
          17 9 3 1 2.</_></rects>
      <tilted>0</tilted></_>
    <_>
      <rects>
        <_>
          18 1 11 10 -1.</_>
        <_>
          18 6 11 5 2.</_></rects>
      <tilted>0</tilted></_>
    <_>
      <rects>
        <_>
          18 2 3 10 -1.</_>
        <_>
          18 7 3 5 2.</_></rects>
      <tilted>0</tilted></_>
    <_>
      <rects>
        <_>
          18 2 10 6 -1.</_>
        <_>
          18 2 5 3 2.</_>
        <_>
          23 5 5 3 2.</_></rects>
      <tilted>0</tilted></_>
    <_>
      <rects>
        <_>
          18 4 12 14 -1.</_>
        <_>
          18 4 6 7 2.</_>
        <_>
          24 11 6 7 2.</_></rects>
      <tilted>0</tilted></_>
    <_>
      <rects>
        <_>
          18 8 10 2 -1.</_>
        <_>
          18 8 5 1 2.</_>
        <_>
          23 9 5 1 2.</_></rects>
      <tilted>0</tilted></_>
    <_>
      <rects>
        <_>
          18 11 2 2 -1.</_>
        <_>
          18 11 1 1 2.</_>
        <_>
          19 12 1 1 2.</_></rects>
      <tilted>0</tilted></_>
    <_>
      <rects>
        <_>
          19 8 2 2 -1.</_>
        <_>
          19 9 2 1 2.</_></rects>
      <tilted>0</tilted></_>
    <_>
      <rects>
        <_>
          19 14 9 2 -1.</_>
        <_>
          22 14 3 2 3.</_></rects>
      <tilted>0</tilted></_>
    <_>
      <rects>
        <_>
          21 4 6 9 -1.</_>
        <_>
          23 4 2 9 3.</_></rects>
      <tilted>0</tilted></_>
    <_>
      <rects>
        <_>
          21 9 11 10 -1.</_>
        <_>
          21 14 11 5 2.</_></rects>
      <tilted>0</tilted></_>
    <_>
      <rects>
        <_>
          21 14 2 5 -1.</_>
        <_>
          22 14 1 5 2.</_></rects>
      <tilted>0</tilted></_>
    <_>
      <rects>
        <_>
          21 15 6 2 -1.</_>
        <_>
          21 15 3 1 2.</_>
        <_>
          24 16 3 1 2.</_></rects>
      <tilted>0</tilted></_>
    <_>
      <rects>
        <_>
          21 15 5 6 -1.</_>
        <_>
          21 17 5 2 3.</_></rects>
      <tilted>0</tilted></_>
    <_>
      <rects>
        <_>
          23 9 12 4 -1.</_>
        <_>
          23 11 12 2 2.</_></rects>
      <tilted>0</tilted></_>
    <_>
      <rects>
        <_>
          23 10 4 4 -1.</_>
        <_>
          23 10 2 2 2.</_>
        <_>
          25 12 2 2 2.</_></rects>
      <tilted>0</tilted></_>
    <_>
      <rects>
        <_>
          23 13 2 4 -1.</_>
        <_>
          23 13 1 2 2.</_>
        <_>
          24 15 1 2 2.</_></rects>
      <tilted>0</tilted></_>
    <_>
      <rects>
        <_>
          23 13 6 7 -1.</_>
        <_>
          25 13 2 7 3.</_></rects>
      <tilted>0</tilted></_>
    <_>
      <rects>
        <_>
          24 8 6 3 -1.</_>
        <_>
          24 9 6 1 3.</_></rects>
      <tilted>0</tilted></_>
    <_>
      <rects>
        <_>
          24 8 9 15 -1.</_>
        <_>
          24 13 9 5 3.</_></rects>
      <tilted>0</tilted></_>
    <_>
      <rects>
        <_>
          24 9 6 14 -1.</_>
        <_>
          26 9 2 14 3.</_></rects>
      <tilted>0</tilted></_>
    <_>
      <rects>
        <_>
          24 12 2 2 -1.</_>
        <_>
          24 12 1 1 2.</_>
        <_>
          25 13 1 1 2.</_></rects>
      <tilted>0</tilted></_>
    <_>
      <rects>
        <_>
          24 12 6 6 -1.</_>
        <_>
          24 12 3 3 2.</_>
        <_>
          27 15 3 3 2.</_></rects>
      <tilted>0</tilted></_>
    <_>
      <rects>
        <_>
          25 3 8 15 -1.</_>
        <_>
          25 8 8 5 3.</_></rects>
      <tilted>0</tilted></_>
    <_>
      <rects>
        <_>
          25 9 11 4 -1.</_>
        <_>
          25 11 11 2 2.</_></rects>
      <tilted>0</tilted></_>
    <_>
      <rects>
        <_>
          26 21 6 1 -1.</_>
        <_>
          29 21 3 1 2.</_></rects>
      <tilted>0</tilted></_>
    <_>
      <rects>
        <_>
          26 23 4 1 -1.</_>
        <_>
          28 23 2 1 2.</_></rects>
      <tilted>0</tilted></_>
    <_>
      <rects>
        <_>
          27 0 6 4 -1.</_>
        <_>
          27 0 3 2 2.</_>
        <_>
          30 2 3 2 2.</_></rects>
      <tilted>0</tilted></_>
    <_>
      <rects>
        <_>
          27 0 4 3 -1.</_>
        <_>
          27 1 4 1 3.</_></rects>
      <tilted>0</tilted></_>
    <_>
      <rects>
        <_>
          27 3 5 18 -1.</_>
        <_>
          27 9 5 6 3.</_></rects>
      <tilted>0</tilted></_>
    <_>
      <rects>
        <_>
          27 6 4 8 -1.</_>
        <_>
          29 6 2 8 2.</_></rects>
      <tilted>0</tilted></_>
    <_>
      <rects>
        <_>
          27 9 8 4 -1.</_>
        <_>
          27 9 4 2 2.</_>
        <_>
          31 11 4 2 2.</_></rects>
      <tilted>0</tilted></_>
    <_>
      <rects>
        <_>
          28 4 4 15 -1.</_>
        <_>
          30 4 2 15 2.</_></rects>
      <tilted>0</tilted></_>
    <_>
      <rects>
        <_>
          28 8 8 3 -1.</_>
        <_>
          28 9 8 1 3.</_></rects>
      <tilted>0</tilted></_>
    <_>
      <rects>
        <_>
          28 23 6 1 -1.</_>
        <_>
          31 23 3 1 2.</_></rects>
      <tilted>0</tilted></_>
    <_>
      <rects>
        <_>
          30 9 6 11 -1.</_>
        <_>
          32 9 2 11 3.</_></rects>
      <tilted>0</tilted></_>
    <_>
      <rects>
        <_>
          30 10 2 6 -1.</_>
        <_>
          31 10 1 6 2.</_></rects>
      <tilted>0</tilted></_>
    <_>
      <rects>
        <_>
          30 12 6 3 -1.</_>
        <_>
          32 12 2 3 3.</_></rects>
      <tilted>0</tilted></_>
    <_>
      <rects>
        <_>
          31 22 4 1 -1.</_>
        <_>
          33 22 2 1 2.</_></rects>
      <tilted>0</tilted></_>
    <_>
      <rects>
        <_>
          32 0 4 10 -1.</_>
        <_>
          32 0 2 5 2.</_>
        <_>
          34 5 2 5 2.</_></rects>
      <tilted>0</tilted></_>
    <_>
      <rects>
        <_>
          32 1 3 1 -1.</_>
        <_>
          33 1 1 1 3.</_></rects>
      <tilted>0</tilted></_>
    <_>
      <rects>
        <_>
          32 8 4 6 -1.</_>
        <_>
          34 8 2 6 2.</_></rects>
      <tilted>0</tilted></_>
    <_>
      <rects>
        <_>
          32 9 2 7 -1.</_>
        <_>
          33 9 1 7 2.</_></rects>
      <tilted>0</tilted></_>
    <_>
      <rects>
        <_>
          32 10 3 4 -1.</_>
        <_>
          32 12 3 2 2.</_></rects>
      <tilted>0</tilted></_>
    <_>
      <rects>
        <_>
          35 0 1 6 -1.</_>
        <_>
          35 3 1 3 2.</_></rects>
      <tilted>0</tilted></_>
    <_>
      <rects>
        <_>
          35 5 1 6 -1.</_>
        <_>
          35 7 1 2 3.</_></rects>
      <tilted>0</tilted></_>
    <_>
      <rects>
        <_>
          35 9 1 14 -1.</_>
        <_>
          35 16 1 7 2.</_></rects>
      <tilted>0</tilted></_></features></cascade>
</opencv_storage>
