<?xml version="1.0"?>
<opencv_storage>
<stage14>
  <maxWeakCount>8</maxWeakCount>
  <stageThreshold>-7.5476461648941040e-01</stageThreshold>
  <weakClassifiers>
    <_>
      <internalNodes>
        0 -1 8160 -4.6297244727611542e-02</internalNodes>
      <leafValues>
        7.5000000000000000e-01 -5.0395780801773071e-01</leafValues></_>
    <_>
      <internalNodes>
        0 -1 274175 -2.9584582895040512e-02</internalNodes>
      <leafValues>
        6.4893460273742676e-01 -2.7837905287742615e-01</leafValues></_>
    <_>
      <internalNodes>
        0 -1 246050 -1.5153859276324511e-03</internalNodes>
      <leafValues>
        -8.5238176584243774e-01 1.7931678891181946e-01</leafValues></_>
    <_>
      <internalNodes>
        0 -1 182051 4.4909510761499405e-03</internalNodes>
      <leafValues>
        -1.5981614589691162e-01 6.0042232275009155e-01</leafValues></_>
    <_>
      <internalNodes>
        0 -1 100235 -2.1483705495484173e-05</internalNodes>
      <leafValues>
        -5.2541035413742065e-01 2.1039389073848724e-01</leafValues></_>
    <_>
      <internalNodes>
        0 -1 328048 4.9517740262672305e-04</internalNodes>
      <leafValues>
        -1.9303371012210846e-01 6.4123874902725220e-01</leafValues></_>
    <_>
      <internalNodes>
        0 -1 333488 1.0562869720160961e-03</internalNodes>
      <leafValues>
        -3.6913928389549255e-01 2.8212940692901611e-01</leafValues></_>
    <_>
      <internalNodes>
        0 -1 360779 -3.9035727968439460e-04</internalNodes>
      <leafValues>
        4.3094125390052795e-01 -2.9141801595687866e-01</leafValues></_></weakClassifiers></stage14>
</opencv_storage>
