<?xml version="1.0"?>
<opencv_storage>
<stage8>
  <maxWeakCount>8</maxWeakCount>
  <stageThreshold>-9.4643151760101318e-01</stageThreshold>
  <weakClassifiers>
    <_>
      <internalNodes>
        0 -1 360549 1.2828150764107704e-02</internalNodes>
      <leafValues>
        -5.6125354766845703e-01 5.2941179275512695e-01</leafValues></_>
    <_>
      <internalNodes>
        0 -1 328138 2.6900391094386578e-03</internalNodes>
      <leafValues>
        -2.9178416728973389e-01 4.4193017482757568e-01</leafValues></_>
    <_>
      <internalNodes>
        0 -1 26114 -1.0420008038636297e-04</internalNodes>
      <leafValues>
        -4.9742141366004944e-01 2.5203132629394531e-01</leafValues></_>
    <_>
      <internalNodes>
        0 -1 274314 5.1569184288382530e-03</internalNodes>
      <leafValues>
        -2.3382453620433807e-01 4.7356998920440674e-01</leafValues></_>
    <_>
      <internalNodes>
        0 -1 327065 4.1305668652057648e-02</internalNodes>
      <leafValues>
        -2.8094646334648132e-01 4.9978795647621155e-01</leafValues></_>
    <_>
      <internalNodes>
        0 -1 30876 -2.4825860746204853e-03</internalNodes>
      <leafValues>
        5.9280461072921753e-01 -2.0643346011638641e-01</leafValues></_>
    <_>
      <internalNodes>
        0 -1 70135 -1.8470328068360686e-03</internalNodes>
      <leafValues>
        6.4878207445144653e-01 -1.7160981893539429e-01</leafValues></_>
    <_>
      <internalNodes>
        0 -1 305656 -5.7147398591041565e-02</internalNodes>
      <leafValues>
        8.6907696723937988e-01 -1.4426696300506592e-01</leafValues></_></weakClassifiers></stage8>
</opencv_storage>
