<?xml version="1.0"?>
<opencv_storage>
<stage1>
  <maxWeakCount>7</maxWeakCount>
  <stageThreshold>-1.5365455150604248e+00</stageThreshold>
  <weakClassifiers>
    <_>
      <internalNodes>
        0 -1 32721 -2.4207998067140579e-03</internalNodes>
      <leafValues>
        4.4144144654273987e-01 -6.8181818723678589e-01</leafValues></_>
    <_>
      <internalNodes>
        0 -1 111245 -1.0311953723430634e-01</internalNodes>
      <leafValues>
        7.7773046493530273e-01 -3.0467367172241211e-01</leafValues></_>
    <_>
      <internalNodes>
        0 -1 185851 -1.5298932790756226e-02</internalNodes>
      <leafValues>
        6.3793772459030151e-01 -4.8652482032775879e-01</leafValues></_>
    <_>
      <internalNodes>
        0 -1 355703 -4.9642464146018028e-03</internalNodes>
      <leafValues>
        7.2202599048614502e-01 -1.8019367754459381e-01</leafValues></_>
    <_>
      <internalNodes>
        0 -1 326995 -2.4604713544249535e-03</internalNodes>
      <leafValues>
        7.2985440492630005e-01 -2.0563688874244690e-01</leafValues></_>
    <_>
      <internalNodes>
        0 -1 278184 8.4572110790759325e-04</internalNodes>
      <leafValues>
        -3.3940503001213074e-01 6.3058096170425415e-01</leafValues></_>
    <_>
      <internalNodes>
        0 -1 185088 -8.4501551464200020e-04</internalNodes>
      <leafValues>
        5.4347687959671021e-01 -3.0827918648719788e-01</leafValues></_></weakClassifiers></stage1>
</opencv_storage>
