<?xml version="1.0"?>
<opencv_storage>
<stage12>
  <maxWeakCount>10</maxWeakCount>
  <stageThreshold>-1.0241358280181885e+00</stageThreshold>
  <weakClassifiers>
    <_>
      <internalNodes>
        0 -1 60916 -4.5463994145393372e-01</internalNodes>
      <leafValues>
        4.2465752363204956e-01 -5.5491328239440918e-01</leafValues></_>
    <_>
      <internalNodes>
        0 -1 208632 8.6689041927456856e-04</internalNodes>
      <leafValues>
        -3.3208689093589783e-01 3.1116479635238647e-01</leafValues></_>
    <_>
      <internalNodes>
        0 -1 327203 7.4105886742472649e-03</internalNodes>
      <leafValues>
        -2.4779731035232544e-01 3.9374318718910217e-01</leafValues></_>
    <_>
      <internalNodes>
        0 -1 340862 -6.1593198915943503e-04</internalNodes>
      <leafValues>
        -5.4361152648925781e-01 2.0220486819744110e-01</leafValues></_>
    <_>
      <internalNodes>
        0 -1 52513 5.2443402819335461e-04</internalNodes>
      <leafValues>
        -2.6300922036170959e-01 4.2504855990409851e-01</leafValues></_>
    <_>
      <internalNodes>
        0 -1 156465 -4.8290964215993881e-02</internalNodes>
      <leafValues>
        6.0886377096176147e-01 -1.8254987895488739e-01</leafValues></_>
    <_>
      <internalNodes>
        0 -1 37261 -1.5871148556470871e-02</internalNodes>
      <leafValues>
        6.1724883317947388e-01 -1.9285789132118225e-01</leafValues></_>
    <_>
      <internalNodes>
        0 -1 92780 -5.5877560953376815e-05</internalNodes>
      <leafValues>
        -5.2305203676223755e-01 2.3209954798221588e-01</leafValues></_>
    <_>
      <internalNodes>
        0 -1 279493 -1.1530638585099950e-04</internalNodes>
      <leafValues>
        3.8902568817138672e-01 -3.1327927112579346e-01</leafValues></_>
    <_>
      <internalNodes>
        0 -1 359474 -1.4820805517956614e-04</internalNodes>
      <leafValues>
        -8.1726431846618652e-01 1.5915082395076752e-01</leafValues></_></weakClassifiers></stage12>
</opencv_storage>
