<?xml version="1.0"?>
<opencv_storage>
<stage9>
  <maxWeakCount>10</maxWeakCount>
  <stageThreshold>-1.0469957590103149e+00</stageThreshold>
  <weakClassifiers>
    <_>
      <internalNodes>
        0 -1 70032 2.4817174673080444e-01</internalNodes>
      <leafValues>
        -5.6521737575531006e-01 4.5945945382118225e-01</leafValues></_>
    <_>
      <internalNodes>
        0 -1 363952 1.6737235710024834e-03</internalNodes>
      <leafValues>
        1.7526881396770477e-01 -6.0490238666534424e-01</leafValues></_>
    <_>
      <internalNodes>
        0 -1 307460 -6.2774075195193291e-03</internalNodes>
      <leafValues>
        5.5705463886260986e-01 -2.0494608581066132e-01</leafValues></_>
    <_>
      <internalNodes>
        0 -1 19782 -8.2073267549276352e-04</internalNodes>
      <leafValues>
        -6.6401875019073486e-01 1.8758317828178406e-01</leafValues></_>
    <_>
      <internalNodes>
        0 -1 321637 -3.1984732486307621e-03</internalNodes>
      <leafValues>
        5.2958387136459351e-01 -2.3342363536357880e-01</leafValues></_>
    <_>
      <internalNodes>
        0 -1 152007 2.4180236505344510e-04</internalNodes>
      <leafValues>
        -3.0456978082656860e-01 3.7303140759468079e-01</leafValues></_>
    <_>
      <internalNodes>
        0 -1 359286 -5.2703911205753684e-04</internalNodes>
      <leafValues>
        -8.2134908437728882e-01 1.5833938121795654e-01</leafValues></_>
    <_>
      <internalNodes>
        0 -1 99223 1.2846491299569607e-03</internalNodes>
      <leafValues>
        -2.5505346059799194e-01 5.2958250045776367e-01</leafValues></_>
    <_>
      <internalNodes>
        0 -1 341101 -2.4876525276340544e-04</internalNodes>
      <leafValues>
        -6.4603084325790405e-01 1.9106051325798035e-01</leafValues></_>
    <_>
      <internalNodes>
        0 -1 126397 -5.9748262166976929e-02</internalNodes>
      <leafValues>
        -8.6730802059173584e-01 1.2422046810388565e-01</leafValues></_></weakClassifiers></stage9>
</opencv_storage>
